5.475901442041519829e+01
4.834348168214138042e+01
4.701644669946161059e+01
7.954151860338113522e+01
1.140800569456603029e+02
7.073079824064899412e+01
-6.473192244206043711e+01
3.142792591603291896e+01
4.529598502443985097e+01
5.981603338161835381e+01
-1.158327893409285707e+02
1.055040950797146024e+02
9.835367269060024853e+01
-1.524749017865079850e+02
2.754478283431864156e+02
9.208995042561799949e+01
1.597841175782337189e+02
-2.554450626255004408e+02
-3.460502236452355760e+02
1.289689069168880451e+02
1.007429053810304111e+02
5.828753618813944115e+01
1.378878797577573607e+02
4.145949714919255058e+01
8.389492471788381067e+01
1.377972051852683251e+02
3.761717659556270519e+02
1.688742921790283091e+01
-1.968720226303326015e+01
-1.753961415695558799e+02
-8.711769542976639968e+01
6.321826928805569423e+01
-2.306585916135750551e+02
1.123944205847373894e+02
-1.388934725966559540e+02
-1.630539674701900594e+02
-1.273560092540771471e+01
-2.484650189540195342e+01
8.314826543986933416e+01
4.932763214983491196e+01
1.765926863846036383e+02
-2.422003110392197414e+02
-1.398540148044715465e+02
9.926005338285301605e+01
-1.328430847930856089e+02
-2.857909602537594083e+02
-2.948905848867302666e+02
2.370993008680035246e+02
3.400607352788442199e+02
1.802915397195143044e+02
1.146020055345267963e+00
1.177947787533519630e+02
-1.194398325470189519e+02
7.448789688912009410e+01
2.603160762631233069e+02
7.787737510348138770e+00
-8.540841295864504445e+01
4.322295275678243343e+01
1.914585320862258584e+02
1.600986357448615536e+02
2.692256696523777464e+02
-1.444513611742411285e+02
-2.796853776286003068e+01
3.698207416960410399e+01
2.437597573597357723e+02
-1.045138157993011419e+02
4.806270307353894964e+02
1.188491715321228241e+02
1.686620609236604196e+01
-3.032532437165631478e+01
-9.780118046740327031e+00
2.402756783814228640e+02
-1.156884780173379568e+03
-3.824172984798990456e+02
1.866258744339243094e+02
6.394149684107725307e+02
-4.799013841207865880e+02
1.622559980598645666e+02
-7.668288959637998232e+02
-1.504004197841918540e+02
7.204623983673184284e+02
-1.662197758428761517e+03
-5.156759874329050035e+02
-4.702747087584020846e+01
2.495521883764415179e+03
-7.367816552227606053e+02
-3.906072021753245735e+02
-1.984827130947162459e+02
6.772377499764755271e+01
-4.556219643817403835e+02
-1.644201882092163714e+03
1.462552987294263858e+03
1.152939114586779112e+02
-3.259288756293233291e+01
9.598144147264154924e+01
1.039900871951551267e+02
3.977204661915797601e+02
-2.921233159647766797e+02
2.222769444627996108e+03
3.263143438290082031e+03
